Language model created by QuickLM on Thu Apr 20 03:47:36 EDT 2017
Copyright (c) 1996-2010 Carnegie Mellon University and Alexander I. Rudnicky

The model is in standard ARPA format, designed by Doug Paul while he was at MITRE.

The code that was used to produce this language model is available in Open Source.
Please visit http://www.speech.cs.cmu.edu/tools/ for more information

The (fixed) discount mass is 0.5. The backoffs are computed using the ratio method.
This model based on a corpus of 4 sentences and 10 words

\data\
ngram 1=10
ngram 2=12
ngram 3=11

\1-grams:
-1.0000 </s> -0.3010
-1.0000 <s> -0.2553
-1.3010 AIR -0.2788
-1.6021 CLOSE -0.2788
-1.3010 CONDITIONER -0.2553
-1.3010 DOOR -0.2553
-1.6021 OFF -0.2788
-1.6021 ON -0.2788
-1.6021 OPEN -0.2788
-1.3010 TURN -0.2788

\2-grams:
-0.9031 <s> CLOSE 0.0000
-0.9031 <s> OPEN 0.0000
-0.6021 <s> TURN 0.0000
-0.3010 AIR CONDITIONER 0.0000
-0.3010 CLOSE DOOR 0.0000
-0.3010 CONDITIONER </s> -0.3010
-0.3010 DOOR </s> -0.3010
-0.3010 OFF AIR 0.0000
-0.3010 ON AIR 0.0000
-0.3010 OPEN DOOR 0.0000
-0.6021 TURN OFF 0.0000
-0.6021 TURN ON 0.0000

\3-grams:
-0.3010 <s> CLOSE DOOR
-0.3010 <s> OPEN DOOR
-0.6021 <s> TURN OFF
-0.6021 <s> TURN ON
-0.3010 AIR CONDITIONER </s>
-0.3010 CLOSE DOOR </s>
-0.3010 OFF AIR CONDITIONER
-0.3010 ON AIR CONDITIONER
-0.3010 OPEN DOOR </s>
-0.3010 TURN OFF AIR
-0.3010 TURN ON AIR

\end\
